-4.095408509842071720e-01 -2.594933768103561689e-01 6.617665556161378415e-01
-1.768135651880178294e-01 -6.797727884323575553e-01 2.601642228593342709e-01
-1.083288659787807084e+00 -1.201480285349235011e+00 -5.027110495284545927e-02
-3.445894898463613409e-01 -5.745993434377417719e-01 6.322510363335498429e-01
5.336335960207509999e-01 5.215331948960828523e-01 -5.913672071674157538e-01
1.124526070312828335e-01 -5.269488141292332228e-01 -7.548361234943801179e-01
1.162419753399355493e-01 -4.670417460309801705e-02 -2.964799452670466851e-01
-1.260749472024612627e-01 2.473777434031901645e+00 -2.836838610433072283e-01
7.857573446366981074e-01 3.181074397453620972e-01 -3.941670831503861216e-01
1.208644268771622343e+00 4.492578424637093670e-01 3.890729194485662706e-02
-4.194560209359506769e-02 -1.353271465032065968e-01 1.231104167138624000e-01
2.167030400602865670e-01 3.923397645125346056e-01 8.273161942121590173e-02
-7.911797167581260393e-01 -7.306897463843612384e-01 5.718741821864259389e-01
